#ifndef ESP32_MLP_WEIGHTS_H
#define ESP32_MLP_WEIGHTS_H

// FLOAT weights (no biases) + architecture metadata

#define NUM_LAYERS 3
#define NUM_CLASSES 26

static const int16_t NN_IN_DIMS[NUM_LAYERS]  = {100,32,16};
static const int16_t NN_OUT_DIMS[NUM_LAYERS] = {32,16,26};

// activation codes per hidden layer: 0=relu,1=elu,2=gelu,3=swish,4=leaky_relu,-1=unknown
static const int8_t NN_ACTS[NUM_LAYERS-1] = {0,0};

static const int8_t NN_WBITS[NUM_LAYERS]   = {8,6,6};
static const int8_t NN_ABITS[NUM_LAYERS-1] = {8,8};

/* nn_weights is a concatenation of layer weight matrices, each stored column-major (out x in transposed) */
const float nn_weights[] = {
  // Layer 1 (100x32)
  0.13255265f, -0.31759518f, -0.06727823f, -0.43610355f, -0.05369643f, -0.51932973f, 0.05406142f, 0.14375219f, 
  1.14437759f, -0.03801974f, -0.25650331f, -0.79838949f, 0.53683716f, -0.59413069f, 0.74888504f, 0.13491963f, 
  -0.45130450f, -0.42814451f, 0.62770760f, 0.00328802f, -0.13863721f, -0.14525397f, -1.02881920f, -0.03132110f, 
  0.12083476f, 0.31170091f, -0.11623032f, -0.01351524f, 0.20357253f, -0.48539236f, -0.08907780f, -0.56167167f, 
  0.21181801f, -0.13455397f, -0.65357554f, 0.30320638f, -0.60092485f, -0.00245966f, -0.28937531f, 0.09446403f, 
  1.05625772f, 0.46336800f, -0.33156341f, -0.70633018f, 0.20685986f, 0.15982957f, 0.66642898f, -0.24719715f, 
  0.13756949f, -0.33812746f, 0.55659992f, -0.00772694f, 0.01275221f, -0.25835410f, -0.43981677f, 0.25789192f, 
  -0.23078676f, 0.66275358f, 0.04566541f, 0.38915271f, -0.31357670f, 0.31128517f, -0.05111620f, -0.00230184f, 
  0.55489028f, -0.05109733f, -0.91397196f, 0.36874512f, 0.51059496f, 0.49825686f, 0.24342138f, -0.13980879f, 
  1.45838141f, 0.13694327f, -1.27866352f, -1.17484689f, 0.53327394f, -0.11800822f, 0.59418553f, -0.35938084f, 
  -0.30511269f, -0.36749271f, 1.16408682f, 0.31514162f, 0.09336647f, 0.45528978f, -0.50870365f, -0.07244981f, 
  -0.63378292f, 0.28766796f, -0.06122236f, -0.07865873f, -0.24298440f, 0.54638100f, -0.01488741f, 0.16906947f, 
  0.86169618f, -0.30831590f, 0.08023739f, -0.15621364f, 1.23729515f, 0.09520578f, 0.03500052f, -0.79777139f, 
  1.14709592f, 0.27204514f, -1.94763172f, -0.38816482f, -0.40084147f, -0.20096144f, 0.75047636f, 0.07715172f, 
  -1.08744287f, 0.00844564f, 0.29364276f, 0.11176251f, -0.61237532f, 0.62298620f, -0.14823718f, -1.13243699f, 
  0.64998287f, 0.05775981f, -0.15544650f, 1.31889439f, 0.10398542f, 0.75518745f, -0.86562389f, 0.37754288f, 
  0.90062052f, 0.80984247f, -0.45011237f, -0.44615531f, 0.77142328f, 0.26148778f, 0.04518469f, -0.27653626f, 
  0.27092537f, 0.30758098f, -0.78220922f, 0.43869025f, 0.18340187f, 0.43625978f, -1.44574952f, 0.53048027f, 
  0.03544445f, 0.96021807f, 0.36394325f, -0.91701376f, 0.49208686f, 0.80691063f, -0.16617478f, -0.09325469f, 
  0.54264617f, -0.05180848f, 0.03624434f, -0.27717122f, -0.37005240f, 0.06087711f, -0.00921356f, 0.17583314f, 
  0.25532734f, 0.27666253f, -0.95406330f, 0.11656903f, -0.00606810f, 0.36103189f, 0.43125892f, 0.01139399f, 
  0.65577197f, -0.28251025f, -0.12932816f, 0.99012083f, 0.40109828f, 0.77980012f, -1.56993568f, 0.25946453f, 
  -0.19039623f, 1.18807161f, 0.60596389f, -0.68776155f, 0.17589457f, 0.57813388f, -0.69079053f, 0.17066276f, 
  0.60468042f, -1.41864669f, 0.08730481f, -1.53281724f, -0.83354032f, -0.09454315f, 0.90717417f, -0.10023446f, 
  0.18190922f, 0.04025201f, -0.66059434f, 0.50106376f, -0.06319020f, -0.30730805f, 0.61380339f, -0.95694983f, 
  1.40227163f, 0.83709246f, 0.11606529f, 0.72498643f, 0.21362936f, 0.12364940f, -0.04859966f, 0.21843928f, 
  0.02659473f, 0.27213073f, -0.41774985f, 0.15913893f, -0.31737387f, -0.23882999f, 0.11795247f, -1.15084994f, 
  -0.09666625f, -0.45122975f, -0.24188907f, 0.70265764f, -0.79245979f, 0.50582963f, -0.48779431f, -0.34845281f, 
  0.92860001f, 0.50362706f, 0.08391327f, 0.86242211f, 0.34690294f, -0.40701801f, 0.08202481f, -0.46677008f, 
  1.09284806f, 0.50836420f, -0.31497732f, -0.21060432f, 0.58455282f, -0.01368745f, -0.02898405f, -0.45812401f, 
  -0.05410079f, -0.07987092f, 0.24667323f, -0.28409147f, -0.19407579f, -0.14792225f, 0.09724580f, -0.57015544f, 
  -1.01039898f, 0.20623071f, 0.28630728f, 0.51915491f, -0.45469138f, -0.18844560f, 0.46642166f, 0.32765278f, 
  0.56758934f, 0.09837499f, 0.26825514f, 0.43957126f, 0.11897504f, -0.78967917f, -0.05509622f, -0.27280006f, 
  0.44769460f, -0.61508423f, -0.03764294f, -0.42236647f, 0.52162492f, 0.38098046f, -0.06792670f, -0.62322730f, 
  -0.43108779f, 0.75291342f, 0.54459387f, -0.47222418f, 0.10364810f, 0.30644256f, -0.15985224f, 0.16848396f, 
  -1.05611992f, 0.46975565f, 0.33198437f, -0.12513366f, 0.16349223f, 0.01525545f, 0.51517415f, 0.66914350f, 
  0.21025491f, -0.46394646f, -0.20656325f, -0.14106911f, -0.47966969f, -0.41863087f, 0.51868373f, -0.37922603f, 
  -0.51563835f, -0.50119740f, 0.32940757f, 0.12116303f, 0.64653713f, 0.09979302f, 0.09652111f, -0.25763020f, 
  -0.31286404f, 0.98056501f, 0.18447010f, 0.30370480f, 0.19062786f, 0.50802892f, -0.38670239f, 0.04093430f, 
  -0.70697743f, 0.73367679f, -0.19395316f, 0.03823723f, 0.12260012f, 0.00529134f, -0.06077491f, -0.01033961f, 
  0.32618248f, -0.13363303f, -0.17734000f, -0.31923059f, 0.18130074f, 0.53370607f, 0.87726182f, -0.38561139f, 
  1.09741962f, 0.01762932f, -0.61427230f, -0.93677121f, 0.29865444f, -0.37820533f, 0.96138853f, -0.37176988f, 
  -0.50817966f, -0.49973184f, 1.32721305f, -0.31366616f, 0.20902823f, -0.22789264f, -0.64412695f, 0.15555395f, 
  -0.43585894f, 0.10226986f, 0.14695330f, -0.52562928f, -0.17113051f, -0.11524677f, -0.05121627f, 0.13637444f, 
  0.43544587f, 0.11177595f, -0.08539809f, 0.78934193f, -0.29439270f, 0.01059785f, 0.10153528f, 0.38680920f, 
  0.08082018f, 0.07081019f, -0.86225152f, -0.74076760f, 0.01858435f, 0.26537493f, 0.83166867f, -0.40863305f, 
  -0.02036857f, -0.64226651f, 0.30324692f, 0.26071903f, -0.08982126f, 0.00984301f, -0.22770202f, 0.43948719f, 
  0.04513955f, 0.68378556f, 0.14533250f, -0.16565199f, 0.02852460f, -0.08837788f, 0.04691033f, 0.23476985f, 
  0.47726649f, 0.10579704f, -0.69148600f, 0.41425785f, 0.25276670f, 0.05163376f, -0.21271914f, 0.23034734f, 
  0.52534455f, 0.01797223f, -2.02460408f, -0.40875581f, 0.05244688f, 0.29262733f, 0.51489019f, -0.36578092f, 
  0.38411134f, -0.77203655f, -0.08049431f, 0.39233997f, -0.21223725f, 0.57848233f, -0.02135632f, 0.02078049f, 
  0.33874196f, 0.46096909f, 0.22275378f, 0.27182347f, -0.07734969f, 0.14499484f, -0.27810988f, 0.71777034f, 
  0.49379107f, 0.12663221f, -0.07451466f, -0.35690731f, 0.71980500f, 0.25639293f, -0.25610682f, -0.23973145f, 
  0.24825987f, 0.61714840f, -1.31159163f, -0.13479079f, -0.42418289f, -0.12842108f, 0.20406207f, 0.18273428f, 
  0.20318703f, -0.33278707f, -0.42456618f, -0.31869954f, -0.36826366f, 0.64950764f, 0.27257180f, -0.21265134f, 
  0.77492708f, 0.11809142f, 0.17644212f, 1.03276742f, 0.09788474f, 0.19162644f, -0.71821404f, 0.88860357f, 
  0.41281915f, 0.43188426f, -0.10745267f, -0.05128028f, 0.63588178f, 0.45276427f, 0.33185416f, 0.54379475f, 
  0.23348972f, -0.08868457f, 0.06963905f, 0.15743154f, 0.28463748f, 0.37206709f, -0.62774658f, 0.35017905f, 
  0.33249915f, 0.42509359f, 0.26949194f, -0.84452718f, 0.52392721f, 0.66134065f, 0.07658526f, 0.51637596f, 
  0.48736632f, -0.55870056f, 0.48163423f, -0.95246810f, -0.42195559f, -0.31055236f, -0.15549336f, 0.18794830f, 
  0.24458595f, -0.22769286f, -0.14265761f, 0.27511272f, 0.34501097f, 0.53355575f, 0.63521516f, 0.54603451f, 
  0.89226639f, -0.59554815f, 0.45003685f, 0.86946929f, 0.51078016f, 0.26803166f, -0.51763117f, 0.39023805f, 
  -0.56680787f, 0.81625038f, 0.47214693f, -0.11253245f, 0.24226937f, 0.38257933f, 0.24473339f, -0.38046968f, 
  0.58509958f, -1.54345810f, 0.53861248f, -1.28661251f, -0.85809296f, 0.05903914f, 0.18710004f, -0.20859577f, 
  0.16959462f, -0.39878651f, -0.11618513f, 0.33742043f, -0.04641554f, 0.24110249f, 0.49769768f, 0.50344336f, 
  0.65011060f, 0.59727883f, 0.14269014f, 0.62641174f, 0.24837422f, 0.35080934f, 0.13865650f, 0.16063517f, 
  -0.54869467f, -0.22476071f, -0.14424320f, 0.01046894f, -0.50116068f, 0.13344666f, 0.25660905f, -0.82109356f, 
  0.08362138f, 0.27147049f, 0.54452741f, 0.54245746f, 0.03014180f, 0.59489965f, 0.27564073f, 0.11759140f, 
  0.39120916f, 0.23188685f, 0.19448948f, 0.58080178f, 0.01402681f, 0.08814561f, 0.17105632f, -0.19769064f, 
  0.30975294f, 0.50774705f, 0.06521417f, 0.37110972f, 0.46747983f, 0.31109434f, 0.25259414f, -0.35510564f, 
  -0.51720804f, -0.29101193f, 0.35403639f, -0.11247738f, -0.44774202f, 0.47255245f, 0.00876018f, -0.17915107f, 
  -0.09460061f, 0.31815779f, 0.59624177f, 0.40034083f, 0.56783700f, 0.33051148f, 0.47088489f, 0.22399335f, 
  0.09818312f, 0.42163834f, 0.32294887f, 0.46745065f, -0.10114947f, 0.13208567f, -0.12322110f, -0.47495422f, 
  -0.06956024f, 0.02223444f, 0.12440223f, 0.06994470f, 0.18035388f, 0.10387373f, 0.15832809f, -0.59522754f, 
  -0.36675122f, 0.53927565f, 0.49488932f, -0.17205745f, 0.01219524f, 0.39350623f, -0.36264017f, 0.26113275f, 
  -0.32153508f, 0.04236496f, 0.32716784f, -0.12253506f, 0.29449150f, 0.10120611f, 0.41127703f, 0.17476159f, 
  0.21554442f, -0.07635961f, -0.14170949f, 0.00211358f, -0.57136881f, -0.13043103f, 0.19489807f, -0.56348008f, 
  -0.09953344f, -0.05184902f, -0.22825475f, 0.09695323f, 0.14912550f, -0.19043307f, 0.18018404f, -0.31925660f, 
  -0.99782956f, 0.95427442f, 0.38547489f, -0.07785292f, -0.25512111f, 0.26807317f, -0.53390914f, -0.03794243f, 
  -0.49517632f, 0.27606148f, -0.18276720f, -0.26358005f, 0.10274459f, -0.21817316f, 0.36265892f, 0.01795358f, 
  0.33763751f, 0.19874886f, -0.93114680f, -0.09188621f, -0.22633645f, 0.13762413f, 0.18908396f, -0.35365534f, 
  0.55000585f, 0.01463102f, -1.55310142f, -0.86729807f, 0.14502992f, -0.12721324f, 0.69637465f, -1.39283371f, 
  -0.50861502f, -0.96971798f, 0.77384394f, -0.28614405f, -0.12977038f, -0.24520715f, -0.39867118f, 0.36171165f, 
  -0.69229925f, 0.28729424f, 0.17364168f, -1.00528610f, 0.15718263f, 0.66514558f, -0.10015527f, 0.27517939f, 
  0.20582867f, 0.24810791f, -0.27355289f, 0.78418237f, -0.16309148f, -0.21188785f, 0.03155974f, 0.06840809f, 
  0.01633358f, -0.12159240f, -1.43717039f, -0.28046128f, 0.03136086f, -0.03527589f, 0.56775701f, -0.78048277f, 
  -0.03228459f, -0.81022573f, -0.15386572f, 0.24331149f, -0.45924231f, -0.19855396f, 0.03472160f, 0.14852126f, 
  0.21136324f, 0.44355133f, 0.09373654f, -0.43230096f, 0.22580998f, 0.30077755f, 0.01906286f, 0.37489322f, 
  -0.17688355f, 0.07789668f, -0.21625987f, 0.19474289f, 0.41655299f, 0.18703711f, 0.17181727f, -0.02353835f, 
  0.33810610f, -0.07788300f, -1.52657676f, 0.07537528f, 0.07556330f, 0.03571348f, 0.26254669f, 0.01374258f, 
  0.22555445f, -0.79363698f, -0.28035179f, 0.09844324f, -0.28986180f, 0.47544950f, 0.07721584f, -0.08400164f, 
  0.63019973f, 0.69102257f, -0.01380306f, 0.42276341f, 0.42186713f, 0.46512696f, -0.18320097f, 0.55762166f, 
  -0.02882762f, 0.10076368f, 0.20255786f, -0.67479092f, 0.63808751f, 0.25528896f, 0.18920717f, 0.29200315f, 
  -0.22693619f, 0.29878742f, -0.49693242f, 0.04719760f, 0.29406461f, -0.01230182f, -0.40992865f, 0.98055267f, 
  0.05616653f, 0.06882360f, -0.29077467f, -0.61317784f, -0.12629382f, 0.81720692f, 0.17890111f, -0.07739405f, 
  0.61515307f, 0.29213601f, 0.14490630f, 0.82661813f, 0.46064255f, 0.25675538f, -0.32458118f, 0.33983883f, 
  0.29459685f, -0.00228265f, -0.19553976f, -0.24323076f, 0.59768337f, 0.12718324f, 0.16361061f, 0.17780766f, 
  -0.15967816f, -0.10875616f, 0.30141419f, 0.33271012f, 0.48733279f, 0.06780344f, -0.48175576f, 0.20255592f, 
  0.20034590f, 0.43325481f, 0.14620888f, -0.27616113f, 0.40205666f, 0.49241507f, -0.03666425f, 0.34468916f, 
  -0.00047207f, -0.65883535f, 0.60873938f, -0.65035325f, -0.34581980f, -0.03791635f, 0.39989910f, 0.47303697f, 
  0.36747727f, -0.08282662f, 0.17562215f, 0.16260107f, 0.67568719f, 0.39255750f, 0.30381382f, 0.05635925f, 
  0.48776889f, -0.59530103f, 0.32837361f, 0.34301585f, 0.08927074f, 0.11270288f, 0.05756447f, 0.03006672f, 
  -0.17158251f, 0.52430123f, 0.09919163f, -0.38945889f, 0.20374176f, 0.23317529f, 0.03970960f, -0.26177460f, 
  0.29808399f, -0.79243356f, 1.03084767f, -0.52162427f, -0.42605942f, 0.46704760f, -0.05445692f, -0.09092000f, 
  0.19611575f, 0.03517330f, -0.02147477f, -0.25783044f, -0.13733077f, 0.59010285f, 0.37435827f, 0.46670812f, 
  0.65461498f, 0.19128719f, 0.33934286f, 0.55726832f, 0.41523120f, 0.06375157f, 0.42802373f, 0.22451495f, 
  -0.18829603f, 0.31404778f, -0.01270447f, -0.31420270f, -0.45991710f, 0.34853184f, 0.17845523f, -0.66022617f, 
  0.08050520f, -0.12560415f, 0.57279152f, 0.34445435f, -0.08254702f, 0.70922017f, 0.08667672f, 0.06549466f, 
  0.29889980f, 0.23433132f, 0.33608887f, 0.10911188f, -0.27889785f, 0.54110664f, 0.35202116f, -0.07252969f, 
  0.37040752f, 0.60081613f, 0.02350588f, 0.68192369f, 0.38506505f, -0.21172757f, 0.28475118f, 0.46641937f, 
  -0.33013216f, 0.16770476f, 0.05561788f, 0.23520076f, -0.14580311f, 0.60311574f, 0.00130255f, -0.16921741f, 
  -0.11155299f, -0.16577767f, 0.44537687f, 0.12567458f, 0.30090684f, 0.38467366f, 0.20467097f, 0.32706314f, 
  0.42847744f, 0.38023317f, 0.31847373f, 0.57340658f, -0.18992370f, 0.41595462f, 0.31449708f, -0.48624754f, 
  0.42729896f, 0.27987382f, 0.07469405f, 0.32859111f, -0.14491639f, -0.17391907f, 0.08637410f, -0.28568047f, 
  -0.24860454f, 0.09169914f, 0.15410118f, 0.08678822f, 0.05434885f, 0.37550160f, -0.38881651f, 0.24976470f, 
  -0.23658708f, -0.29465726f, 0.51234138f, 0.09993619f, 0.19025342f, 0.13649297f, 0.00600003f, 0.33419937f, 
  0.49345076f, 0.15220471f, -0.87103206f, 0.31336504f, -0.28113306f, -0.00284724f, 0.32113630f, -0.91826922f, 
  0.66728604f, 0.21479993f, -0.37643465f, -0.24056461f, 0.02941145f, -0.39729515f, -0.08829024f, -1.18353236f, 
  -0.67213959f, -0.34026295f, 0.24631494f, -0.16336037f, -0.30303577f, 0.15678985f, -0.94928068f, 0.33139390f, 
  -1.01001549f, 0.14825083f, 0.01896431f, -0.46043155f, -0.18567938f, -0.08307815f, -0.00278919f, 0.34708229f, 
  -0.08489173f, 0.14092642f, -0.79245377f, 0.06026720f, 0.12148990f, -0.36109194f, -0.19215371f, 0.28002000f, 
  0.12551884f, -0.37960345f, -2.39963031f, -0.75378221f, -0.18176463f, 0.10103553f, -0.05492931f, -1.55912125f, 
  -0.45650879f, -0.57734025f, 1.08566618f, -0.03731573f, 0.27387542f, 0.20823659f, -0.75904489f, 0.48778605f, 
  0.04102609f, 0.09930614f, -0.02256095f, -0.92225254f, 0.24242270f, 0.40140656f, -0.24406402f, -0.04113100f, 
  -0.30929551f, 0.25548244f, -0.24871370f, 0.58777094f, 0.30379143f, -0.48095030f, -0.07780955f, -0.48386377f, 
  0.15076740f, -0.03834844f, -1.83544934f, 0.15554444f, -0.01476634f, 0.28548381f, 0.24842644f, -0.49776420f, 
  -0.10609428f, -0.11576720f, 0.03311884f, 0.35735103f, 0.09740816f, -0.02258947f, 0.12788872f, 0.13093309f, 
  0.24754083f, 0.34849167f, 0.19023256f, -0.28252971f, 0.18895869f, 0.40779406f, 0.21062501f, 0.30009562f, 
  -0.11822939f, 0.21953267f, -0.03657129f, 0.42758274f, 0.67346483f, 0.19198319f, 0.28460813f, -0.24441335f, 
  0.12954229f, 0.03343577f, -0.57110053f, 0.43597755f, 0.09841132f, 0.10856213f, 0.21141258f, 0.27630123f, 
  0.24763523f, -0.42656481f, -0.14803104f, -0.17739227f, -0.34502938f, 0.36647356f, 0.60818285f, -0.28116846f, 
  0.75153702f, 0.74632108f, 0.16280195f, 0.41386113f, 0.23483695f, 0.45575088f, -0.05782574f, 0.69503331f, 
  0.38447446f, 0.24790968f, -0.01093052f, -0.59892142f, 0.75572520f, 0.23246887f, 0.57077473f, 0.09629180f, 
  -0.36508387f, 0.19009832f, 0.30200484f, 0.37609941f, 0.22121252f, -0.08180100f, -0.01871987f, 0.51772869f, 
  0.12364656f, -0.21182619f, -0.02359347f, -0.82996464f, -0.17517659f, 0.61044621f, 0.63259536f, -0.08052280f, 
  0.46294102f, -0.03690546f, 0.54245210f, 0.42162541f, 0.08710212f, 0.34601441f, -0.20077175f, 0.47412533f, 
  0.25607252f, 0.16996138f, 0.24218316f, 0.09031665f, 0.36646551f, -0.07794120f, 0.44299698f, 0.23136400f, 
  -0.49965152f, -0.00507051f, 0.34987876f, 0.16723005f, 0.19919288f, 0.04858049f, 0.01273859f, 0.01655060f, 
  -0.00248478f, -0.54529178f, 0.33744231f, -0.37012622f, -0.14626831f, 0.18476766f, 0.02149699f, 0.37193885f, 
  -0.42443565f, -0.42205581f, 0.67449027f, -0.48185959f, 0.22291686f, 0.07260982f, 0.51655269f, 0.77712607f, 
  0.19581853f, -0.01031851f, 0.72728616f, 0.24669154f, 0.07678495f, 0.19892307f, 0.04233708f, 0.37551314f, 
  0.41585216f, -0.46060708f, -0.03660003f, -0.59815943f, 0.08682974f, 0.20801131f, 0.29471675f, -0.05830034f, 
  0.05155432f, 0.01702062f, 0.42844287f, -0.30672199f, 0.01587148f, 0.32505530f, -0.10138237f, 0.30621752f, 
  -0.05488272f, -0.24544916f, 0.52424300f, -0.23481643f, 0.11314107f, 0.14643764f, 0.20526202f, 0.03227901f, 
  0.32627663f, -0.13112020f, 0.27895141f, -0.65688360f, -0.75653124f, 0.50024676f, -0.39253470f, 0.22456229f, 
  0.49682069f, -0.25406468f, 0.15573017f, -0.08645183f, 0.06886162f, -0.12522411f, 0.64004749f, -0.01470465f, 
  -0.06830675f, 0.58475077f, 0.09976866f, -0.09998249f, -0.32769564f, -0.15073600f, 0.00493632f, -0.13226573f, 
  0.60431045f, -0.30652231f, 0.52465641f, 0.11981914f, -0.43149486f, 0.44364560f, -0.16698840f, -0.28936261f, 
  0.57310796f, 0.04671311f, 0.29257277f, -0.00624308f, -0.36226776f, 1.01571810f, -0.35144711f, -0.08454619f, 
  0.32453611f, 0.48201945f, 0.17031339f, 0.58634865f, 0.64333892f, -0.45540655f, 0.60529923f, 0.22553988f, 
  -0.36532658f, -0.07838578f, 0.01252053f, 0.16167317f, 0.14523548f, 0.08698785f, -0.28563827f, 0.11269189f, 
  0.37448055f, -0.24651431f, 0.07962849f, 0.01504251f, 0.00633888f, -0.00278482f, -0.09954175f, -0.24887948f, 
  0.40942118f, 0.11621425f, 0.34704226f, 0.77717358f, -0.35468480f, 0.83871692f, 0.33952180f, -0.31862119f, 
  0.76501143f, 0.30639228f, 0.10645947f, 0.26554996f, 0.55050838f, -0.16830155f, 0.28258854f, -0.09898521f, 
  -0.59066981f, -0.48424959f, 0.29696351f, 0.07722772f, 0.76863426f, 0.49073783f, 0.10269725f, 0.49009323f, 
  -0.14415361f, -0.05650437f, -0.02380319f, -0.16460274f, 0.26842809f, -0.15653348f, 0.09033558f, 0.03512070f, 
  0.27026159f, 0.04940408f, -0.53325093f, 0.62981319f, -0.34401375f, 0.66156328f, 0.28910345f, -0.66226649f, 
  1.07617617f, -0.06314600f, 0.03554687f, 0.26885965f, 0.57178003f, -0.75381011f, 0.06323840f, -1.11969292f, 
  -0.73761600f, -0.56318700f, 0.37416014f, -0.18924813f, 0.60086852f, 0.39448813f, -0.09843575f, 0.37665558f, 
  -0.47814125f, -0.03553930f, 0.24659957f, -0.61773658f, 0.16566448f, 0.17357676f, 0.29550916f, -0.07766745f, 
  -0.36518624f, -0.23065951f, -0.75431859f, 0.14072078f, 0.21168159f, -0.12994127f, 0.24011962f, -0.00255443f, 
  0.59946108f, -0.07460584f, -2.84454751f, -0.11281353f, -0.43582249f, 0.07781961f, -0.34029722f, -1.40141964f, 
  -0.20740052f, -0.12521799f, 0.85761493f, 0.13545381f, 0.31642017f, -0.05195216f, -0.86045343f, 0.79805201f, 
  0.63551116f, -0.18424392f, 0.00638834f, -0.68369532f, 0.21590176f, 0.51779836f, 0.32864237f, -0.01998032f, 
  -0.50060838f, 0.39529124f, -0.51022208f, 0.76443928f, 0.67516750f, -0.30020660f, 0.08218887f, -0.41255707f, 
  0.01186690f, -0.07939178f, -1.02607632f, 0.38301802f, 0.03808763f, -0.08160171f, -0.16400012f, -0.36660543f, 
  -0.05617969f, 0.14459641f, 0.37865356f, 0.32969311f, 0.09018342f, 0.00037865f, -1.26180708f, 0.34071872f, 
  0.73503745f, 0.25350323f, 0.31892133f, -0.33836326f, 0.19702549f, 0.39245331f, 0.27002400f, 0.13833365f, 
  -0.06186663f, 0.59721524f, -0.22236601f, 0.30681908f, 0.08338196f, -0.09972483f, 0.29330879f, -0.05512137f, 
  0.19894461f, 0.06175960f, -0.27675197f, 0.46919236f, -0.19070996f, 0.09098346f, 0.09604666f, 0.00972108f, 
  0.21273163f, -0.21125098f, 0.02686491f, -0.12313578f, 0.03103789f, 0.26221818f, -1.09755516f, 0.03813966f, 
  0.73896110f, 0.72380084f, 0.24976444f, 0.37887412f, -0.06253628f, 0.34467411f, -0.15341680f, 0.50183231f, 
  0.52270937f, -0.17143083f, 0.32360885f, -0.72574729f, 0.18511163f, -0.03068718f, 0.64464617f, 0.00629208f, 
  -0.23831710f, -0.24295913f, 0.36493036f, -0.14848046f, -0.16426438f, 0.26697496f, -0.28414708f, 0.42276025f, 
  0.05485947f, -0.02931182f, -0.50602776f, -0.61949635f, -0.27088583f, -0.11773872f, -0.59620142f, 0.02721709f, 
  0.04501924f, 0.18916182f, 0.27087793f, 0.35928217f, 0.12360521f, 0.17760640f, 0.11406068f, 0.28123268f, 
  0.26662394f, 0.21717156f, 0.74600881f, -0.03353460f, -0.00687737f, -0.03826285f, -0.03766782f, 0.49286151f, 
  0.41568863f, -0.30969325f, -0.00260811f, -0.39150259f, 0.34946835f, 0.55174655f, -0.53380650f, 0.21333803f, 
  -0.01354623f, 0.14374344f, -0.18761095f, 0.25071272f, -0.42563722f, 0.20011590f, -0.21059929f, 0.34746537f, 
  -0.33917859f, 0.01480394f, -0.33567333f, -0.10327343f, 0.67780524f, 0.32544193f, 0.42006233f, 0.23099498f, 
  0.30181080f, 0.25803754f, 0.41352004f, -0.01138896f, -0.04450151f, -0.19752985f, -0.34507760f, 0.74340212f, 
  0.22603185f, -0.23414147f, -0.12982796f, -0.52139455f, 0.56634420f, 0.79431647f, -0.62668186f, -0.20646518f, 
  -0.08756747f, 0.46844596f, 0.39255288f, 0.30543631f, -0.39016321f, 0.54032415f, 0.03563724f, 0.66881573f, 
  -0.06257939f, 0.18519564f, -1.13609159f, 0.08615083f, 0.32651281f, 0.33799624f, 0.63795054f, -0.14634478f, 
  0.61338377f, 0.26778874f, -0.00155180f, -0.80168432f, -0.77918625f, -0.20206054f, -0.41648853f, 0.34537679f, 
  -0.04468948f, -0.19730721f, 0.01922000f, -0.33592477f, -0.16818726f, 0.07646666f, 0.00629090f, -0.30179659f, 
  -0.66716099f, 0.55683368f, -0.11950332f, -0.38782945f, -0.39669615f, -0.48626563f, -0.11024830f, 0.17068720f, 
  0.09185979f, -0.25813001f, -1.53958726f, 0.21893109f, -0.47888613f, 0.64332289f, 0.50543505f, -0.09929779f, 
  0.16820179f, -0.13244978f, 0.55516481f, -0.36007702f, -0.19984369f, 0.74432629f, 0.01273524f, -0.02669359f, 
  0.23627268f, 0.45841244f, 0.45230809f, 0.32884118f, 0.09891658f, -1.09224725f, 0.30111957f, 0.28590578f, 
  0.08982930f, 0.04325536f, -0.45778170f, 0.00626826f, 0.17735946f, -0.78196514f, -0.23180597f, 0.40779462f, 
  0.06397548f, -0.39011607f, -0.43743891f, 0.14317197f, -0.63600242f, -0.18112968f, 0.12055820f, -0.08487857f, 
  0.23061605f, 0.27296349f, 0.22395903f, 0.72652978f, -0.00898362f, 1.13451624f, 0.42941347f, -0.25976300f, 
  0.84510767f, 0.21139143f, 0.14864597f, 0.22329693f, 0.47855556f, -0.60388768f, 0.35864446f, 0.19140941f, 
  0.82772535f, -0.36008391f, 0.04863331f, 0.16046444f, 0.88906831f, 0.30069315f, -0.01186249f, 0.43995675f, 
  -0.08426324f, 0.15899363f, -0.10499471f, -0.33685967f, 0.04630490f, -0.28264430f, 0.31414300f, -0.06275297f, 
  -0.05592697f, 0.15546140f, -0.04957689f, 0.72036594f, -0.03197699f, 0.96729493f, -0.24000464f, -0.66277444f, 
  1.45961785f, -0.17675717f, -0.27911085f, 0.03074678f, 0.70478559f, -0.54815543f, 0.45333463f, -1.04708898f, 
  0.85858560f, -0.68473291f, 0.33807516f, -0.14719875f, 0.95201856f, 0.73239493f, -0.07002128f, 0.32411781f, 
  0.25649652f, 0.14015725f, -0.31434894f, -0.68360770f, 0.63006324f, 0.07929893f, 0.35907939f, -0.19749257f, 
  -0.94657528f, 0.04319863f, -1.02796400f, 0.57323247f, 0.83961809f, -0.01606335f, 0.41282433f, -0.24512464f, 
  0.85103482f, 0.05453365f, -1.24744058f, 0.32930768f, 0.15660979f, 0.12644497f, -0.13268003f, -1.87313235f, 
  0.07391697f, 0.10025575f, 1.07814479f, -0.06570002f, 0.33776248f, -0.03957515f, -0.68146300f, 0.41402715f, 
  0.99149537f, -0.14563330f, -0.23603652f, -0.47913969f, 0.16835345f, 0.50472355f, 0.75227273f, -0.46072376f, 
  -0.54560000f, 0.27776194f, -0.54462361f, 0.95988810f, 0.86961913f, 0.01372991f, 0.11315634f, 0.03880667f, 
  0.03533538f, -0.16956016f, -0.08684407f, 0.33422172f, 0.07123969f, 0.08492563f, -0.16557540f, -0.70462412f, 
  -0.12118047f, 0.05288621f, 0.38715714f, 0.50799084f, 0.26796108f, -0.03563875f, -1.02661741f, 0.31442118f, 
  0.28155717f, -0.03039134f, -0.01008574f, -0.09374753f, 0.44303247f, 0.40859240f, 0.42775992f, -0.00227512f, 
  -0.72070271f, -0.25697419f, 0.00636584f, 0.29164264f, 0.30141217f, 0.07632621f, 0.10099318f, 0.09990149f, 
  -0.12199254f, -0.27774584f, 0.09253248f, 0.22064842f, 0.12044040f, 0.29293594f, -0.10517482f, 0.17313763f, 
  0.11571999f, -0.00670763f, -0.25030997f, 0.38872617f, 0.38310051f, -0.10424839f, -0.69374043f, -0.12515739f, 
  -0.05044942f, 0.69073397f, -0.16488555f, 0.36694932f, 0.02819193f, 0.42452979f, 0.35965157f, 0.22162820f, 
  -0.41230199f, -1.04930854f, 0.49909499f, -0.76540536f, -0.07076108f, 0.14754970f, 0.14887391f, -0.28812358f, 
  -0.14883345f, -0.07242534f, -0.09351115f, -0.17142905f, -0.03582406f, 0.58860093f, -0.16812235f, 0.92504042f, 
  -0.13747653f, 0.63496971f, -0.37358892f, -0.23364021f, 0.42823264f, -0.02514852f, -0.49082211f, -0.10874666f, 
  0.47212309f, 0.76906610f, -0.07981886f, -0.04899770f, 0.03360609f, -0.15428887f, 0.48766831f, 0.32732078f, 
  0.37953910f, 0.53656071f, 0.27575406f, -0.25601208f, 0.28533480f, 0.05227492f, -0.16175838f, 0.16594981f, 
  0.20669483f, 0.50061321f, -0.20138510f, -0.45069423f, 0.65766561f, 0.91702741f, 0.09934871f, 0.33175233f, 
  -0.13338554f, 0.82149863f, 0.21990427f, 0.36497283f, -0.01882034f, 0.60168272f, 0.20288865f, 0.42707404f, 
  0.25189322f, 0.45789954f, -0.78125960f, -0.20346090f, 0.19269276f, 0.11084738f, 0.81252974f, 0.04912481f, 
  0.51517272f, 0.12871620f, -0.45343500f, 0.20523655f, 0.15248436f, -0.24600498f, -0.19300282f, 0.03528195f, 
  0.29084608f, 0.31353980f, 0.09901704f, 0.04880233f, 0.49625236f, 0.40305632f, -0.05503201f, 0.00934689f, 
  -0.44703069f, 0.69090694f, 0.52402967f, 0.58200997f, 0.20953462f, 0.32334957f, 0.18861149f, 0.44868699f, 
  -0.23734049f, -0.10281207f, -0.49039707f, -0.23578526f, -0.16309433f, 0.25653109f, 0.66705114f, 0.22217512f, 
  -0.25425670f, 0.35820642f, 0.03121523f, -0.58757639f, -0.78441840f, -1.00427604f, -0.28706136f, 0.55580014f, 
  0.24503277f, 0.44829506f, 0.19243735f, 0.10949561f, -0.67747837f, -0.50882787f, -0.05685805f, -0.10822546f, 
  -0.09656632f, 0.24304381f, -0.02223159f, -0.58211571f, -0.03498019f, -0.46226081f, -0.10523261f, 0.11716623f, 
  -0.20831876f, -0.67471057f, -0.41902891f, 0.17763868f, -0.24726649f, 0.02965709f, 0.29421306f, 0.25429320f, 
  -0.06000913f, -0.13647050f, 0.44482189f, -0.10821770f, -0.25091171f, -0.55706602f, -0.09365558f, 0.25895065f, 
  0.42919248f, 0.38629368f, 0.07613079f, 0.24431406f, -0.13325600f, -0.55664492f, -0.08134483f, 0.23717135f, 
  1.08126521f, -0.02742070f, -0.36442935f, 0.15480572f, 0.02567161f, -0.34288600f, -0.14298859f, 0.24277891f, 
  0.02852417f, -0.23188259f, -0.05681592f, 0.53607571f, -0.39266890f, -0.58040875f, 0.52218950f, 0.19245702f, 
  0.46001101f, 0.18737108f, 0.25855225f, 0.55325443f, 0.00995498f, -0.26651862f, -0.57801455f, -0.12243015f, 
  0.48974851f, -0.09925869f, -0.17765918f, -0.00200560f, 0.58509809f, 0.03505576f, 0.49005175f, 0.11257946f, 
  1.26951778f, -0.14570712f, 0.08014002f, 0.21396470f, 0.33785269f, 0.15484361f, -0.14260395f, 0.61339474f, 
  0.02548635f, 0.01910776f, -0.08093563f, -0.05064822f, -0.15759946f, -0.70315081f, 0.64342129f, -0.22181062f, 
  0.37260067f, 0.03414158f, -0.43173799f, 0.91026819f, 0.20791869f, -0.01616829f, -1.37175989f, -0.61590612f, 
  1.07464719f, -0.43642518f, -0.86096948f, 0.00780605f, 0.37550408f, 0.24129343f, 0.85682762f, -1.43080735f, 
  1.33757770f, -0.43820828f, 0.61043805f, -0.08115084f, 0.57204574f, 0.35228851f, -0.74186265f, 0.74504387f, 
  -0.15606110f, 0.02170665f, -0.04887215f, -0.55731982f, 0.11503440f, -1.16227591f, 0.45199594f, -0.23603271f, 
  -0.71797734f, -0.04201829f, -1.21432376f, 0.40352699f, 0.79986835f, -0.12021268f, 0.02155501f, -0.00864722f, 
  0.13468923f, -0.63958460f, -0.06000834f, 0.68348432f, 0.22986037f, 0.48560873f, -0.67228478f, -1.91041803f, 
  -0.20138605f, -0.36873919f, 1.66861022f, 0.12632866f, 0.17414954f, 0.40341267f, 0.69570923f, 0.29204443f, 
  0.03855833f, -0.14452331f, -0.23889357f, -0.62863880f, 0.39978868f, 0.67587501f, 0.71966290f, -0.58597797f, 
  0.01447336f, -0.02070477f, -0.42492327f, 0.89976937f, 0.64074087f, -0.10843077f, 0.31718358f, 0.28708449f, 
  -0.33168033f, -0.20943998f, 0.70458627f, 0.37071896f, 0.39556873f, 0.28825200f, -0.10905369f, -0.80280834f, 
  -0.23715886f, -0.31796831f, 0.70126015f, 0.24113217f, 0.07275404f, 0.19034244f, 1.07650471f, 0.25219390f, 
  -0.76995414f, 0.18715620f, 0.01508306f, -0.19355968f, 0.13690969f, 0.56774974f, 0.18975419f, -0.15706155f, 
  -0.57646322f, -0.41828251f, -0.15446125f, 0.17121407f, 0.28830159f, 0.11948731f, -0.01585156f, 0.51022381f, 
  -0.24851361f, 0.09839693f, 0.75406462f, 0.30269673f, 0.32677853f, 0.13574854f, -0.23335233f, 0.43975577f, 
  0.08420964f, -0.40989259f, 0.34776881f, 0.30452651f, 0.14908813f, 0.16625458f, 0.82199794f, -0.12632176f, 
  -0.24916789f, 0.49600676f, 0.06026262f, 0.10006467f, 0.43048292f, 0.26501024f, 0.54455775f, -0.03776608f, 
  -0.77044886f, -1.66649091f, 0.09678279f, -0.34054571f, 0.16959994f, -0.06384490f, 0.36551163f, -0.33232042f, 
  -0.45837307f, 0.38171422f, -0.18810908f, -0.32473376f, -0.34321004f, -0.38125676f, 0.19382645f, 0.74819797f, 
  0.01053952f, -0.22822031f, 0.33421072f, 0.14640869f, 0.28834093f, 0.30826762f, 0.49548638f, -0.09274703f, 
  0.85710907f, 0.60812050f, 0.33015504f, -0.19531900f, 0.40092257f, -0.47024193f, 0.25466073f, 0.39836472f, 
  -0.36945099f, 0.10057453f, -0.01090979f, -0.03389288f, 0.39617532f, 0.17191017f, 0.74762630f, -0.21229385f, 
  -0.45865476f, 0.25492248f, -0.05279343f, -0.26086488f, -0.09314764f, -0.02206873f, 0.61902130f, 0.14511546f, 
  -0.09106522f, -0.19715481f, 0.53304869f, 0.70515144f, 0.48077729f, 0.37823910f, 0.50798064f, 0.64078987f, 
  0.70675552f, 0.10660317f, -0.16843873f, -0.60436535f, 0.06782483f, -0.64719361f, -0.19177009f, 0.25979197f, 
  -0.20123567f, 0.03870844f, 0.16002442f, 0.02335808f, -0.64734787f, -0.14196709f, -0.09388483f, 0.46725696f, 
  -0.00678738f, 0.50013447f, 0.37044489f, 0.22294387f, 0.19745384f, -0.30877131f, 0.16768102f, 0.00402745f, 
  -0.17109904f, -0.13840047f, 0.52135623f, 0.05255279f, 0.66871053f, 0.24095841f, 0.05312852f, 0.36678228f, 
  -0.20506521f, -0.62640887f, -0.11050062f, -0.46906132f, 0.32023755f, -0.72137600f, -0.38876805f, 0.02286858f, 
  -0.00969453f, 0.35952228f, 0.18801223f, -0.41992846f, -0.56510770f, -0.53012377f, -0.99701470f, 0.48164928f, 
  0.57768476f, 0.54660481f, 0.28652528f, -0.02631981f, 0.22944692f, -0.23086393f, 0.20688434f, -0.38083944f, 
  0.44843721f, 0.01075475f, -0.27918318f, -0.68814850f, 0.35435158f, -0.04080608f, 0.10971883f, -0.36865091f, 
  0.15883225f, -0.78453392f, -0.34739366f, 0.28076380f, 0.42594743f, -0.57565224f, 0.12923519f, -0.22053945f, 
  0.21442294f, -0.06334286f, 0.32916358f, 0.30452904f, -0.23995511f, -0.64647913f, -0.65567291f, 0.32023764f, 
  0.40979031f, -0.14235958f, -0.07434186f, 0.30704966f, 0.53008652f, 0.09411548f, 0.17693922f, 0.25211948f, 
  0.75326478f, 0.20934878f, -0.21490777f, 0.52102405f, 0.08101454f, 0.49453989f, 0.04144638f, 0.12038568f, 
  0.07892223f, 0.21920539f, 0.07732348f, 0.43932271f, 0.03135459f, -0.83473080f, 0.39260158f, 0.19377288f, 
  0.15188485f, 0.04724714f, 0.09313023f, 0.53450620f, 0.14544502f, -0.46874332f, -0.73837316f, 0.10035045f, 
  0.11629898f, -0.45604748f, -0.03939881f, 0.16264531f, 0.33603227f, 0.27873054f, 0.45704526f, 0.06683599f, 
  0.41578683f, 0.24894899f, 0.08602071f, 0.18631269f, 0.22963685f, 0.41048989f, 0.15641017f, 0.30140471f, 
  -0.38591233f, 0.09117664f, -0.16971406f, -0.21601331f, -0.22612745f, -1.32532716f, 0.28598705f, -0.13861400f, 
  0.37771356f, -0.00222553f, -0.91446012f, 0.57024997f, 0.47557217f, -0.13734902f, -1.54520619f, -0.63973546f, 
  0.61033821f, -0.80634177f, -0.47591540f, 0.35943738f, 0.25283989f, 0.43734553f, 0.68826938f, -0.72383094f, 
  0.26825884f, 0.16507964f, 0.69884181f, -0.11503386f, 0.59331542f, 0.36686012f, -0.65637827f, 0.58911043f, 
  -0.71006560f, -0.03334769f, -0.16376615f, -0.67047733f, -0.49172249f, -2.05244589f, 0.28085652f, -0.25060925f, 
  -0.44327056f, -0.03561721f, -0.60994452f, 0.63559401f, 0.11762944f, -0.33669448f, 0.30860499f, 0.22991441f, 
  0.19488192f, -0.36759421f, -0.02637879f, -0.21104385f, 0.68921340f, 0.45922890f, -0.56164414f, -1.29751801f, 
  -0.35658714f, -0.62936020f, 1.11264801f, 0.19536270f, -0.24312775f, 0.33530393f, -0.26997414f, 0.24067591f, 
  -1.63538277f, -0.00117450f, -0.43887281f, -0.73814958f, 0.71148837f, 0.37480783f, 0.09297309f, -0.79836571f, 
  -0.07845289f, 0.16510169f, -0.43340018f, 0.74130529f, 0.18830867f, -0.25526872f, 0.16001841f, 0.38420838f, 
  -0.09624390f, -0.23205653f, 0.26212409f, 0.15239295f, 0.36768380f, 0.28005838f, -0.48209921f, -0.47716647f, 
  -0.10203268f, -0.37594643f, 0.54249829f, 0.15972407f, -0.04310422f, 0.33031267f, 0.45640111f, 0.28993931f, 
  -1.46136141f, 0.08666901f, 0.13784622f, -0.18616097f, 0.21588236f, -0.13965552f, -0.04469169f, 0.01272605f, 
  -0.74274480f, -0.02225561f, -0.48714092f, 0.14586662f, 0.29671687f, -0.00450725f, 0.16363320f, 0.44667751f, 
  0.07765727f, 0.28114846f, 0.54377878f, 0.41715282f, -0.02109569f, -0.12964870f, -0.32373855f, 0.27050409f, 
  -0.10194361f, -0.47026926f, 0.15237752f, 0.50012964f, -0.12352349f, -0.13666050f, 0.20512359f, -0.31312194f, 
  -0.81185019f, 0.03527115f, 0.16631749f, 0.39937910f, 0.23076051f, -0.12133032f, 0.30961594f, 0.31535393f, 
  -0.54654580f, -1.99963129f, 0.05408063f, -0.71174663f, 0.48870137f, -0.19663338f, 0.22389786f, -0.15537544f, 
  -0.06991915f, 0.09070919f, -0.16558596f, 0.04884186f, -0.92807317f, -0.81255990f, 0.04844689f, 0.30228701f, 
  -0.21022218f, -0.21509621f, 0.21758705f, 0.53645664f, 0.49610826f, -0.03245655f, 0.20732991f, -0.05184656f, 
  -0.11023994f, -0.12983713f, 0.24608874f, 0.37317541f, 0.03574269f, -0.17502268f, -0.32878640f, 0.63857937f, 
  -0.33754927f, -0.35813603f, 0.32863748f, 0.03079327f, 0.04227452f, 0.03458071f, 0.82977659f, 0.52932549f, 
  -0.45164809f, -0.36853382f, -0.09469754f, 0.04309773f, -0.52794790f, 0.01269306f, 0.19098637f, 0.20138080f, 
  -0.13151279f, -0.32823592f, 0.38067535f, 0.54209310f, 0.52197284f, 0.17863022f, -0.16719396f, -0.00078251f, 
  -0.13700187f, -1.65673316f, -0.23837112f, -1.49059939f, -0.00993249f, -0.42437461f, -0.50465775f, 0.14415401f, 
  -0.20626283f, 0.19180545f, 0.39100918f, -0.12031543f, -0.55055696f, 0.01777097f, 0.55890799f, 0.28023565f, 
  -0.10628609f, -0.66377467f, 0.06181052f, -0.42692494f, 0.28834742f, -0.00168226f, 0.10717221f, 0.20077030f, 
  0.48827502f, -0.75599730f, 0.18491240f, -0.77746046f, 0.53187573f, 0.03019297f, -0.07979206f, -0.29963472f, 
  -0.41811648f, -1.42078006f, -0.50271708f, -0.63087493f, 0.54766905f, 0.12342572f, -0.72167945f, -0.53080493f, 
  0.24965394f, 0.14254600f, 0.14797851f, -0.61271346f, -0.25133073f, -0.70784134f, -0.58660960f, 0.11714288f, 
  0.33854184f, -0.57068717f, 0.14195015f, -0.38446110f, 0.61975861f, -0.07263944f, 0.05291427f, -0.23991920f, 
  0.92931765f, 0.02800287f, -1.03779197f, -0.58230329f, 0.24227774f, 0.23010644f, 0.25518870f, -0.32720360f, 
  0.00766038f, -0.07449939f, -0.29623884f, 0.88447082f, 0.33256185f, 0.02356162f, 0.16384889f, -0.05316066f, 
  0.08698803f, 0.01105747f, 0.10577379f, 0.18095250f, -0.26538703f, -0.64395976f, -0.21948326f, 0.42604154f, 
  0.06481390f, -0.79211962f, -0.01404634f, 0.28430325f, 0.39222968f, -0.17842001f, 0.08117591f, 0.26440090f, 
  0.65520322f, 0.38530600f, -0.60083044f, 0.61344844f, 0.11080202f, 0.36886409f, 0.05458985f, 0.01634238f, 
  -0.06253685f, 0.29411095f, 0.08808473f, 0.28292441f, -0.05613031f, -0.52235985f, 0.61483794f, 0.21449013f, 
  -0.22469239f, 0.01522863f, 0.01776744f, 0.37701643f, -0.05635651f, -0.65216345f, -0.23221523f, -0.01417537f, 
  -0.00137639f, -0.75788969f, -0.02813889f, 0.49329746f, 0.12387858f, -0.10968302f, -0.03994088f, -0.01606748f, 
  0.26089302f, 0.56165332f, -0.20044850f, 0.27619845f, 0.04829439f, 0.21111898f, 0.32707864f, 0.28009057f, 
  -0.43527478f, 0.21445397f, 0.25671148f, 0.00965983f, -0.11159036f, -1.13639152f, 0.38383254f, 0.07758235f, 
  -0.31442484f, -0.07213069f, -1.31101727f, 0.21981290f, 0.36781958f, -0.10175735f, -0.65570784f, -1.31534755f, 
  0.57354236f, -0.75214458f, -0.45797813f, 1.04247963f, 0.02465885f, 0.21599755f, -0.04579604f, -0.89970070f, 
  -0.17022844f, 0.25072700f, 0.53499883f, -0.03608283f, 0.45102498f, 0.29616994f, -0.13734455f, 0.41630870f, 
  -0.16783342f, 0.16528946f, -0.12961207f, -0.24804771f, -0.13233373f, -1.51112783f, 0.85102761f, 0.47836277f, 
  -0.35698459f, -0.47877234f, -0.02339894f, 0.20228270f, -0.66633588f, -0.09117214f, 0.23743887f, 0.28652692f, 
  0.58300203f, 0.06877335f, -0.27982301f, -0.63321644f, 0.44980040f, 0.35363102f, -0.45788881f, -0.79047596f, 
  -0.11478455f, -0.14203291f, -0.57014602f, 0.20297070f, -0.05639111f, -0.54496831f, -0.21540496f, -0.11382124f, 
  -2.33295846f, 0.32163572f, -0.23638488f, -0.25563008f, -0.19162035f, 0.05635236f, 0.18957585f, -0.27535009f, 
  -0.19461749f, 0.29042301f, -0.71866566f, 0.53643090f, -0.18752323f, 0.03657175f, 0.12199894f, 0.07217300f, 
  -0.16066274f, 0.03112095f, -0.26685312f, -0.32857266f, 0.04522683f, 0.22596772f, -0.22293943f, -0.64239585f, 
  0.11373261f, -0.52467507f, -0.39975470f, 0.32673773f, 0.07772019f, -0.03200547f, 0.10768364f, 0.26287532f, 
  -1.94673324f, 0.15961759f, 0.00399388f, -0.13677803f, -0.20543092f, -0.28371841f, -0.10039373f, 0.40284902f, 
  -0.20180352f, 0.01001834f, -0.70397371f, 0.28789693f, 0.22034079f, 0.03826205f, 0.34193620f, 0.37059519f, 
  0.06627615f, 0.46570256f, 0.14863624f, -0.17501360f, 0.14161035f, -0.45506990f, 0.14601098f, -0.26810214f, 
  0.04938288f, -0.71407717f, -0.07402050f, 0.43989334f, 0.00008841f, -0.02315637f, -0.24591596f, 0.32910869f, 
  -1.64961505f, -0.24119763f, 0.14555004f, 0.41192454f, 0.05522088f, -0.34213650f, -0.26046008f, 0.73336911f, 
  -0.32253981f, -2.20823717f, 0.12204062f, -0.48927769f, 0.52323943f, -0.08131533f, 0.34789205f, 0.23089969f, 
  -0.01582477f, 0.25724101f, -0.05161900f, -0.19816476f, -0.88365626f, -1.01182902f, -0.04033035f, 0.39532825f, 
  -0.10179508f, -0.32126835f, 0.11023903f, 0.95220596f, 0.30068481f, -0.44552562f, -0.28069824f, 0.14893171f, 
  -1.19330704f, -1.13641739f, 0.26078108f, 0.05726012f, 0.11096729f, -0.13449477f, -0.43771407f, 0.78278369f, 
  -0.41864809f, -0.33789700f, 0.21479775f, 0.48093936f, -0.41576084f, -0.00349987f, 0.53596157f, 0.45678207f, 
  0.38514492f, -0.43520600f, -0.37314698f, 0.21340200f, -0.79045558f, 0.19299130f, 0.29944903f, 0.31092536f, 
  0.12019486f, -0.45891935f, 0.72441828f, 0.10141463f, 0.46185380f, -0.35473153f, -0.50460976f, -0.29158735f, 
  -0.39157376f, -2.02954960f, -0.27194932f, -2.23047757f, 0.33258349f, -0.34785736f, 0.55388796f, 0.39171904f, 
  -0.34920803f, 0.02641126f, 0.37165332f, 0.02476670f, -0.52263981f, 0.27912650f, 0.62430054f, -0.31430075f, 
  0.57243919f, -0.71106517f, -0.06983305f, -0.63887095f, 0.06085994f, -0.00649564f, 0.31869367f, 0.19830126f, 
  0.68042248f, -0.83813566f, -0.00616747f, -1.51612556f, 0.13439992f, -0.23524298f, -0.06967583f, -0.48699316f, 
  -0.28416413f, -0.95793760f, -0.40232223f, -0.25455716f, 0.59678024f, -0.05521531f, -0.37551302f, -0.03534192f, 
  0.32817709f, -0.01622536f, 0.23370093f, -0.38651988f, 0.38015711f, -0.50163949f, 0.21586815f, 0.26663396f, 
  0.37994736f, -1.29995906f, 0.15954283f, -0.41016233f, 0.36492842f, -0.25878304f, 0.23441368f, -0.04962995f, 
  0.56698346f, -0.63733482f, -0.85117102f, -0.21985845f, -0.16765441f, 0.27553001f, 0.05652478f, -0.41863811f, 
  0.15628235f, 0.22853465f, -0.23092672f, 0.88392341f, 0.18832092f, -0.17507090f, -0.25736398f, 0.31073600f, 
  0.28979692f, 0.07847741f, 0.08208927f, 0.43633583f, 0.06086047f, -1.10627174f, -0.21044956f, 0.39783126f, 
  -0.11687177f, -1.22034883f, -0.08024491f, 0.14740361f, 0.34899539f, -0.06354827f, 0.23286358f, -0.08965999f, 
  0.40673682f, -0.13239612f, -0.54015785f, 0.62948138f, -0.11287121f, 0.27192688f, 0.02843215f, -0.12549004f, 
  0.02712653f, -0.24696812f, 0.01212607f, 0.25581801f, 0.11947787f, 0.12529540f, 0.29523805f, 0.16525662f, 
  0.41087666f, -0.20486216f, -0.05297557f, 0.68425143f, 0.12644380f, -1.14299846f, -0.35474625f, -0.37798989f, 
  -0.55491763f, -0.74149466f, -0.00960904f, 0.84079337f, 0.27841961f, 0.18217561f, 0.03084738f, -0.40759313f, 
  -0.13185100f, 0.14231865f, 0.04323209f, 0.14138126f, -0.22166510f, 0.15585409f, 0.47132784f, 0.56370634f, 
  -0.07954425f, 0.03012186f, -0.10493097f, -0.04494420f, 0.17667775f, -0.41231549f, 0.52895224f, 0.19165863f, 
  0.78605843f, -0.48255983f, -0.87044305f, 0.41253504f, 0.33985406f, -0.19220230f, -0.08666530f, -1.56584144f, 
  -0.17260762f, -0.55406058f, -0.42736137f, 1.60822558f, -0.03099757f, 0.28037879f, -0.11673901f, -0.56203860f, 
  -0.52429569f, 0.53363556f, 0.37031728f, -0.58013201f, -0.08718146f, 0.11329570f, 0.07729153f, 0.63593411f, 
  -0.11816695f, -0.18747538f, -0.28666306f, 0.02970089f, -0.52658617f, -1.05728340f, 1.22568870f, 0.89709854f, 
  -0.18996558f, -0.40783417f, 0.69986510f, -0.21376771f, -0.36633566f, -0.57470691f, -0.11226367f, 0.57306665f, 
  -0.15344834f, -0.47228771f, 0.25293702f, -0.11922997f, 0.02679570f, 0.29372141f, -0.29593563f, -0.16719283f, 
  -0.66789788f, -0.17096895f, -0.71179563f, 0.44856247f, -0.37397090f, -0.41769800f, 0.14212127f, -0.31473562f, 
  -1.35368729f, 0.11968365f, 0.45393002f, 0.07716934f, 0.11284158f, -0.17776106f, 0.49286243f, 0.65177000f, 
  -0.48167965f, 0.60618830f, -0.46185616f, 0.72906649f, -0.15040696f, -0.01974651f, 0.72437280f, 0.59799027f, 
  0.27458519f, -0.36891851f, 0.06404036f, -0.52253276f, 0.06220318f, 0.00546737f, -0.14838426f, -0.26381698f, 
  -0.20584895f, -0.69158006f, 0.06049038f, -0.11663272f, 0.01090535f, 0.01260005f, -0.18609077f, -0.20435849f, 
  -1.51958084f, 0.21955773f, 0.47948337f, -0.33059365f, -0.28392613f, 0.08921647f, -0.25362015f, 1.09687722f, 
  0.00594591f, 0.45826155f, -1.03099012f, 0.30900007f, 0.16864593f, 0.21644486f, 0.92191869f, 0.33588541f, 
  0.86595571f, 0.07902776f, -0.62604129f, -1.51051009f, 0.70465356f, -0.84012580f, 0.23193556f, -0.46199936f, 
  0.03393528f, -0.66918361f, 0.64993346f, 0.27545819f, -0.11534645f, -0.00605561f, -0.77140677f, 0.72714216f, 
  -2.27221704f, 0.16589342f, -0.55042017f, 0.51638967f, -0.03275751f, 0.54176617f, -0.53366667f, 0.45932174f, 
  -0.07126928f, -2.14911199f, -0.51434070f, -0.59553730f, 0.62559676f, 0.22787452f, 0.64508575f, 0.28772807f, 
  0.46548751f, -0.53700513f, -0.27870658f, -1.19358301f, -0.68317521f, -1.24895954f, -0.93256921f, 0.29708388f, 
  -0.25465593f, -0.34355819f, 0.74698758f, 0.99257416f, -0.03836910f, -0.44034693f, -0.68689936f, 0.05615642f, 
  -2.18066621f, -0.38077703f, -0.31893197f, 0.11825564f, 0.22126088f, 0.70459729f, -0.33951199f, 1.08605766f, 
  -0.40930641f, -0.12207581f, -0.35941935f, 0.26921013f, -0.68691289f, -0.00453814f, 0.26320568f, 0.07129430f, 
  1.02733529f, -0.26084924f, -0.58925772f, 0.05202664f, -0.85312545f, -0.35814217f, -0.77610242f, 0.18967363f, 
  0.16299443f, -0.32072905f, 1.29127753f, -0.52492833f, 0.34309733f, 0.02290024f, -0.48534164f, -0.66408098f, 
  -0.75793499f, -0.76942533f, -0.40857330f, -2.12472677f, 0.42440155f, 0.03093796f, 0.88954753f, 0.78252083f, 
  0.52790642f, 0.11164951f, 0.55766296f, -0.38826570f, -0.17169142f, -0.07369658f, 0.49560618f, -0.74994326f, 
  1.33637643f, -0.83565480f, -0.09258714f, -0.12765458f, 0.64629543f, -0.19545679f, 0.13728544f, 0.18967375f, 
  -0.48039657f, -0.00983937f, -0.23434220f, -1.83069754f, -0.42355245f, 0.40611085f, -0.41082424f, -1.17686939f, 
  -0.10470876f, -0.40399608f, -0.87878317f, -0.07825134f, 0.20714529f, -0.30899069f, -0.00369718f, -0.15107250f, 
  1.13275564f, -0.00338808f, 0.83836752f, -0.35272247f, 1.26796603f, -0.04169577f, 0.60343337f, -0.80035681f, 
  1.10200012f, -1.56502187f, -0.07277017f, -0.73779422f, 0.92382640f, -0.33844298f, 0.50634491f, 0.35634443f, 
  -0.52217191f, -0.09260184f, -0.05662254f, -0.65214503f, -0.18751897f, 0.55765212f, -0.41661155f, -0.49891931f, 
  -0.00039984f, -0.57601368f, -0.55065387f, 0.73308182f, 0.03858021f, 0.24113759f, -0.10309179f, -0.15887591f, 
  0.90264869f, -0.30841458f, -0.20406906f, 0.58665645f, 1.01284063f, -1.26991904f, -0.62062418f, -0.79747283f, 
  0.67081267f, -1.32047582f, -0.70626193f, -0.21775071f, -0.00529621f, 0.18623491f, 0.59496439f, -0.32390037f, 
  -0.03086014f, -0.26866466f, 0.52800184f, 0.13092709f, -0.01158413f, -0.18842943f, -0.49970195f, 0.32607719f, 
  0.07548014f, -1.03623843f, -0.01962154f, -0.20365980f, -0.18380591f, 1.05348098f, 0.76699042f, 0.49771643f, 
  0.62677330f, -0.22569047f, -1.02001035f, 0.92229712f, 0.55120182f, -1.01823831f, -0.66433132f, -0.41918311f, 
  -0.79853970f, -1.10451651f, -0.38348541f, 1.47149038f, -0.30683029f, 0.97212797f, -0.10393439f, -0.64785641f, 
  -0.70640409f, 0.14559035f, 1.01353765f, -0.20305912f, -0.83828461f, 0.24688159f, -0.42473194f, 0.41930467f, 
  0.84939069f, -0.06639121f, -0.38193265f, -0.41197458f, -0.20275033f, 0.01238031f, 1.50657618f, 0.92130238f, 
  0.92450655f, -0.74216837f, -0.58165401f, 0.64241213f, -0.23692779f, -0.40469199f, 0.10659392f, -0.22163601f, 
  -0.95365888f, -0.54154873f, -0.20867562f, 1.56097949f, -0.14863634f, 0.41471878f, -0.00294881f, 0.20398793f, 
  -1.23674345f, 0.96017623f, -0.03326439f, -0.76135075f, -1.01835155f, 0.02286696f, -0.06123120f, 0.45758924f, 
  0.21761207f, 0.30798781f, -0.13587189f, 0.27693027f, -0.95327950f, -0.95357639f, 1.54510856f, 0.86354542f, 
  
  // Layer 2 (32x16)
  -0.52661777f, 0.14004751f, 0.30012891f, 0.30482814f, 0.76065397f, 0.09863843f, -0.36695626f, 0.88828111f, 
  -0.37193221f, 0.58794183f, -0.02417802f, -0.04315971f, 0.02895924f, -0.59068310f, -0.16719377f, 0.07404983f, 
  1.05940282f, 1.40438879f, -0.50281036f, -0.16850211f, -0.42676550f, -0.60677952f, 1.09953701f, -0.74910861f, 
  -0.80266005f, -0.36817551f, 0.06716380f, 0.12104946f, 0.57507294f, -1.10857511f, 0.40726113f, -0.91961521f, 
  -0.17055717f, -0.30086139f, 0.77278739f, -0.25720486f, 0.38209251f, 0.73701560f, 0.24752386f, 0.05651635f, 
  -0.10623490f, 0.11642538f, -0.03392047f, 0.32862303f, -0.67982626f, -0.08480995f, 0.38726646f, 0.64424562f, 
  1.30198741f, -0.31791389f, 0.76606101f, -0.15274580f, -0.63645017f, 0.44153786f, 0.76328212f, -0.90540254f, 
  -0.77897894f, -0.33476937f, -1.19725311f, 0.94891441f, -1.58229256f, -0.24743693f, -0.63990998f, 0.47810650f, 
  -0.50542861f, 0.70557076f, 0.03835677f, -0.50888622f, -0.72498232f, 0.02451914f, 0.79449654f, 0.56181175f, 
  0.55313683f, 0.02126575f, -0.11227074f, -0.09834859f, 0.44991118f, -0.67200381f, 1.02525532f, 0.12033910f, 
  0.54372817f, 0.76638782f, 0.65852338f, -1.00983369f, -0.70762825f, 1.24684370f, -0.29811054f, -0.65632528f, 
  -0.10875178f, 0.02994741f, -0.50209355f, -0.00591097f, 0.76847714f, 0.13991022f, -0.28151560f, 0.14425313f, 
  -0.10894693f, -0.41418773f, -0.49822289f, 0.88971543f, -0.37931231f, 0.18775979f, 0.67622787f, 0.54158705f, 
  0.40404591f, -0.22140284f, 0.70049816f, -0.50513649f, -0.30301929f, 0.34212640f, 0.82557499f, -0.16417122f, 
  0.41326249f, 0.31912926f, -0.03799807f, -0.46291396f, 0.20202471f, -0.70522374f, 0.50422084f, -0.12237756f, 
  0.48661914f, 0.05806682f, 0.24135838f, -0.75396514f, -0.06037180f, 0.23137608f, -0.37839293f, 0.72828007f, 
  0.24707910f, -0.53922689f, -0.79241282f, 0.04944697f, 0.44906753f, 0.35075524f, -0.14787789f, 0.55908102f, 
  0.94428027f, 0.90704334f, 0.15436946f, 0.26491433f, -0.16758472f, 0.23545827f, 0.03363538f, -0.19674116f, 
  1.10147274f, -0.36492497f, -0.26698527f, 0.29722515f, 0.06118673f, 0.19485782f, 0.20381330f, 0.96628916f, 
  -1.03386497f, -0.63638818f, -0.30127233f, 0.44891480f, -0.32468328f, 0.98534858f, -0.11900702f, -0.43569347f, 
  0.84001368f, 0.64662194f, -0.74594986f, -0.03379526f, -1.13636041f, 0.02286059f, 0.37032330f, -0.49331957f, 
  0.00494117f, 0.18361577f, -0.68142134f, 0.52922481f, -0.76530254f, 0.27086887f, 1.02908945f, 0.53737569f, 
  0.36312485f, 0.16805559f, -0.36994463f, 0.69370675f, -0.04647424f, -0.40611362f, -0.40574643f, -0.38501972f, 
  0.03308966f, 0.56768066f, -0.04034808f, 0.59027517f, -0.84625214f, -0.26287827f, -0.16868585f, 0.72568011f, 
  0.43398517f, 0.53933322f, -0.65283769f, 0.16462338f, 0.35822901f, -0.41201782f, 0.13340239f, 0.94693112f, 
  0.41280493f, 0.07128502f, 0.63650197f, -0.05611179f, -0.32512337f, -0.57152075f, 0.60512066f, -0.39113110f, 
  0.07026625f, -0.09986992f, 0.16701661f, 0.53906620f, 0.57194942f, -0.04182326f, 0.70570678f, -0.20789497f, 
  -0.17852861f, -0.36956167f, 0.43926424f, -0.06974840f, 1.08482778f, 0.73123473f, -0.71586746f, 0.15792960f, 
  -0.16780150f, -0.40471539f, -0.65251458f, 0.60790545f, 0.44740120f, 0.50597453f, 0.83968109f, 0.13300382f, 
  0.76798439f, -0.31887352f, 0.15132965f, -0.42694890f, -0.47741851f, 0.01844510f, -0.66448641f, -0.37307417f, 
  0.80068201f, -0.24779104f, 0.79878408f, -0.11316912f, -0.16850862f, 0.56989861f, 0.54212356f, 0.09970944f, 
  -0.23572464f, -0.33203611f, -0.11191048f, 0.57126325f, -0.01927651f, -0.68514097f, -0.04493472f, 0.50814062f, 
  0.46085721f, -0.21284641f, -0.23335198f, -0.16170831f, -1.32616627f, 0.39603516f, -0.14209466f, 0.30240518f, 
  -0.84746206f, -0.27637368f, -0.70526367f, 0.82450509f, -0.14282084f, 1.59745431f, 0.16809501f, -0.30229843f, 
  0.52044111f, -0.03493947f, -0.43718517f, 0.16905345f, 0.77181995f, 0.90257394f, -0.16710788f, -0.22040169f, 
  -0.75102466f, 0.43795213f, 0.30263904f, 0.65573126f, -0.03808252f, -0.19449486f, -0.10017100f, 0.21704975f, 
  -0.08287820f, 0.35824522f, 0.29973963f, 0.16104774f, -0.18143773f, 0.22880265f, -0.50518209f, -0.49307856f, 
  0.63884401f, 0.38564014f, 0.76673597f, -0.22083677f, 0.50261682f, 0.46903497f, 0.50353789f, 0.10143939f, 
  -0.36150986f, 0.26517177f, 0.98580438f, 0.16638596f, 0.48574281f, -0.21873945f, 0.61464834f, -1.30406034f, 
  0.32986921f, -0.70813626f, -1.30935907f, 0.30317268f, -0.09586861f, -0.39362901f, 0.70473754f, -0.50698251f, 
  0.10096099f, -0.35283443f, 0.19226101f, 0.93307221f, 0.03468288f, 0.36952510f, -0.04440203f, 0.33444092f, 
  -0.60222489f, 0.14321274f, 0.61914188f, 0.50454646f, 0.57049358f, 0.57725883f, 0.19775888f, -0.31095672f, 
  0.28525165f, 0.26300982f, 0.43756473f, 0.48071581f, 0.20150109f, -0.16283844f, -0.30270085f, 0.56742620f, 
  0.16473509f, 0.32648221f, 0.26583049f, -0.10070170f, 0.20173268f, 0.07864959f, 0.42053831f, 0.41011572f, 
  -0.27043357f, -0.45315912f, -0.44483167f, 0.40329894f, 1.14411831f, 1.55555665f, 0.10686659f, 0.10931982f, 
  -1.11427498f, -0.12404644f, -0.23903136f, 0.00497730f, 0.67703056f, 0.91105539f, -0.77246177f, 0.47928751f, 
  -0.40580532f, 0.72366720f, 0.62195885f, -0.53654772f, 0.50405389f, 0.51704186f, -0.21549767f, 0.28214476f, 
  0.03955342f, -0.32512480f, 0.43475157f, -0.03345785f, 0.43170947f, 0.39569843f, -0.17049240f, -0.03517245f, 
  0.15366800f, 0.36956874f, 0.12225213f, 0.36265779f, -0.65889829f, -0.27272639f, 0.65939164f, -0.77986914f, 
  0.80534810f, 0.28403553f, -0.17291132f, 0.23750052f, -0.50397515f, 0.45784184f, 0.78629029f, 0.86979747f, 
  -1.00413179f, 0.01174030f, 1.28903818f, 0.60946298f, -0.23751320f, -0.13331200f, -0.49110916f, -0.39367324f, 
  -0.97310680f, 0.23054242f, -2.08364654f, -0.14752297f, 0.61078328f, 0.40624833f, -0.35373744f, -0.29752672f, 
  -1.28925455f, 0.09931857f, 0.03215246f, -1.41376936f, 1.05433846f, 0.66121131f, 0.80718219f, -0.54686165f, 
  -0.28264767f, 0.49795550f, -0.07358643f, -0.46244112f, 0.13794419f, 0.61669332f, -0.57154459f, -0.10365948f, 
  0.50756294f, 0.86662370f, 0.73575795f, 0.23475957f, 0.72046816f, -0.01725661f, 1.35466599f, -1.17648983f, 
  -0.80226356f, -0.23018372f, -0.97777206f, 0.79275030f, -0.22981694f, -1.11899948f, -0.71959287f, -0.77591622f, 
  -0.37029675f, 0.09294956f, 0.40865999f, 0.15770359f, 0.25312531f, -0.52296036f, 0.16280472f, 0.19283408f, 
  0.44193095f, -0.65081245f, -0.03694345f, 0.29645005f, -0.10142402f, 0.23663434f, 0.73705339f, -0.02833543f, 
  0.23558618f, -0.66570151f, 0.75928718f, 0.04493255f, -0.62988532f, -0.22251314f, -0.16834898f, -0.17747691f, 
  -0.00841591f, -0.77482617f, -0.60068184f, 0.19792938f, 0.65102649f, 0.90253359f, -0.90687191f, -0.43089822f, 
  -0.09350299f, 0.58641171f, -0.08165020f, -0.28600571f, 0.54273093f, -0.14140166f, 0.03365008f, -0.05991359f, 
  0.59397256f, -0.08364018f, 0.44310084f, 0.44503248f, 0.50515914f, -0.49787211f, 0.09569030f, 0.16662785f, 
  -0.43728182f, -0.17897001f, 0.33405286f, 0.17397915f, -0.07514466f, -0.11888355f, -0.57183975f, 0.37146151f, 
  0.10064138f, -0.13707010f, -0.30058751f, 0.10124932f, 0.55342907f, 0.03126473f, -0.32829392f, 0.86512333f, 
  
  // Layer 3 (16x26)
  0.09048892f, -0.49612585f, 0.16936512f, -0.20749876f, 0.25929406f, 0.71935636f, 0.33215898f, -0.77563822f, 
  0.43638787f, 0.94090509f, -1.16063607f, 0.08857904f, -0.51013654f, -0.49735212f, 0.26432404f, -0.20421514f, 
  -0.02300636f, -0.32880658f, 0.75527310f, -0.31411892f, -0.23735765f, 0.19034258f, 0.26450953f, -0.26758435f, 
  -0.45128456f, -0.09212407f, -0.15218726f, 0.31181046f, 0.32748312f, -0.43744889f, 0.46652856f, 0.22288901f, 
  0.40163836f, 0.20946303f, 0.28914794f, -0.26808065f, 0.13150755f, 0.12538663f, -0.84156936f, -0.33889607f, 
  -0.58192301f, -0.08723598f, 0.32991514f, 0.42647037f, 0.23234110f, 0.13660200f, -0.43937856f, -0.08666420f, 
  -1.26885259f, -0.05770342f, 0.06368813f, -0.08891159f, -0.38980627f, -0.10604776f, -0.30193630f, -0.65827435f, 
  0.35222039f, -0.28205016f, 0.04318193f, -0.19773673f, 0.23205537f, 0.15242395f, -0.14857218f, -0.35309014f, 
  -0.17975447f, 0.11614276f, -0.15074876f, 0.38768488f, -0.22948489f, 0.37507761f, -0.40162027f, 1.06583440f, 
  -0.54301256f, -0.02422288f, 0.12980741f, 0.43628150f, 0.58948612f, 0.62459987f, 0.41701475f, -0.20161545f, 
  -0.09887201f, 0.14929543f, -0.84650213f, -0.87135029f, 0.65835202f, -0.08580367f, -0.60835612f, 0.50743449f, 
  -0.54747039f, -0.40770936f, 0.52878565f, -0.60465091f, -0.56082076f, -0.69129390f, 0.32324189f, -0.26548082f, 
  -0.02895570f, -0.62676615f, 0.74410635f, -0.14665255f, -0.62387890f, 0.38705885f, 0.67942208f, 0.58975083f, 
  0.03015209f, -0.14907809f, -0.44744754f, 0.32753286f, -0.44729736f, -0.56530863f, -0.82010311f, 0.74373692f, 
  0.44747460f, -0.57355446f, 0.53508133f, 0.79230052f, -0.23788370f, 0.36016601f, -0.84356666f, -0.56123793f, 
  -0.92417467f, 0.08888257f, -0.62206614f, -0.34579182f, 0.14881918f, -0.14668544f, 0.28964064f, 0.84518152f, 
  -0.05640696f, 0.21581233f, -0.84824443f, 0.14905177f, 0.50629443f, 0.37705502f, -0.06088284f, -0.74467063f, 
  -0.62737805f, -0.14696392f, 0.50601894f, 0.35308376f, 0.20833714f, 0.70934474f, -0.34874403f, -0.53332865f, 
  0.25215867f, -0.55535203f, -0.81089509f, -0.08838118f, -0.28849721f, 0.20966734f, 0.26718244f, 0.71044439f, 
  0.02916888f, -0.20009834f, 0.20654927f, 0.18903251f, 0.40535793f, 0.33656749f, 0.31873789f, -0.15676509f, 
  0.08956631f, 0.62051243f, -0.43579561f, 0.49219784f, -0.02199571f, 0.54738122f, -0.06644006f, -0.02757160f, 
  0.06084536f, 0.15309195f, -0.06738617f, -0.40194213f, -0.92306274f, 0.13749962f, 0.21927968f, 0.28650180f, 
  -0.08938555f, -0.71724457f, -1.03296280f, -0.35577837f, -0.78838563f, 0.44597882f, -0.44896203f, 0.66275209f, 
  -1.01048768f, -0.14624500f, -0.13714932f, -0.51361072f, 0.08984320f, 0.18371567f, -0.86445653f, -0.25227785f, 
  0.02977346f, -0.68332642f, 0.37407038f, 0.44408229f, -0.37517387f, -0.56223291f, -0.02146682f, -0.71272421f, 
  0.38819826f, -0.09807990f, 0.12034979f, 0.23022898f, 0.62920117f, 0.38704884f, 0.50538349f, -0.46932414f, 
  0.18937297f, 0.56754798f, -0.20833556f, 0.56086802f, 0.22076099f, 0.68494767f, 0.08926864f, -0.06026762f, 
  -0.90094972f, -0.45147479f, 0.62536991f, -0.61238277f, 0.04269121f, 0.06815778f, 0.13600582f, 0.89347714f, 
  0.27263004f, 0.64845991f, -0.36312482f, -0.97748107f, -0.39318299f, -0.34924760f, 0.14672868f, -0.17439963f, 
  -0.63305014f, 0.36645645f, -0.14897099f, -0.25077781f, 0.32539424f, -0.38476282f, 0.14856285f, -0.23160824f, 
  0.23631163f, -0.08959082f, -1.09057999f, -0.40057042f, -0.10189582f, 0.43212691f, -0.10266612f, 0.06875839f, 
  0.00039810f, -0.06889202f, 0.44686657f, -0.09064107f, -1.45804858f, 0.66671437f, 0.21350665f, -0.45632696f, 
  0.52705151f, -0.81512153f, 0.08321982f, -0.25358501f, 0.36132130f, 0.00145363f, -0.75551486f, -0.26429835f, 
  -0.26710624f, 0.20656089f, -0.05405290f, 0.76032567f, -0.56913114f, 0.14825903f, 0.20451924f, -1.84500873f, 
  0.57749552f, -0.15075374f, 0.12636824f, -0.15000178f, -0.20875616f, -0.13645762f, -0.39442024f, 1.15521741f, 
  0.09463604f, -0.14255232f, 0.51237184f, -0.20869230f, -0.07100999f, -0.16727445f, 0.08886637f, 0.00383612f, 
  0.14756680f, 0.50452149f, -0.32734814f, -0.25051403f, 0.12245460f, -0.59257275f, 0.68095595f, 0.38483849f, 
  -0.02237905f, 0.38596267f, -0.52171993f, -0.26813677f, 0.44280252f, -0.53691345f, 0.55607098f, -0.61766958f, 
  0.44442132f, 0.32081771f, 0.02610790f, -0.30214787f, -0.38619685f, 0.01666600f, -0.14877184f, 0.02976900f, 
  -0.14766128f, -1.27940011f, -0.53389221f, -0.60826474f, -0.76388919f, 0.77901495f, 0.19571909f, -0.89546430f, 
  0.13395877f, 0.45416379f, -0.00214467f, 0.84641206f, 0.32661799f, -0.77871233f, -0.97644132f, 0.15015531f, 
  0.56553769f, -0.26311845f, -0.53066176f, 0.14713944f, -0.09379485f, 0.35246173f, 0.07041445f, -0.00132574f, 
  0.55151451f, -0.76186424f, -0.01778831f, -0.41909537f, -0.73584741f, 0.20562258f, -1.22052312f, 0.44539997f, 
  -0.03196157f, 0.32779691f, 0.06119497f, -0.03150581f, -0.94640940f, 0.07031789f, -1.15142298f, 0.32860944f, 
  -0.05991385f, 0.94803888f, 0.03020918f, -0.61601818f, -0.86004019f, 0.20258756f, 0.35422051f, 0.77887315f, 
  -0.24045025f, -0.24061099f, 0.65084660f, -0.56730390f, 0.27839160f, 0.48494303f, 0.59700149f, -0.04151474f, 
  0.49714354f, -0.08330210f, 0.38681272f, -0.08918426f, -0.66371697f, -0.53979868f, -0.74359471f, -0.16933835f, 
  0.23439263f, 0.03779372f, 0.57839626f, 0.36857823f, 0.19840491f, -0.38951311f, 0.45337439f, 0.03122678f, 
  -0.96240294f, -1.39959443f, -0.48213747f, -0.62560529f, -0.35757586f, -0.39229354f, 0.20768106f, -0.88809901f, 
  0.32379350f, -0.13428189f, 0.26848006f, -0.50665551f, -0.30909112f, -0.31724444f, -0.32764387f, -0.79230392f, 
  0.20843059f, -0.50121880f, 0.33837044f, 0.50515747f, 0.21687026f, -0.26346046f, 0.10455830f, 0.58478755f, 
  -0.08921850f, -0.56702012f, 0.50551617f, 0.48905459f, 0.01891677f, 0.00234150f, -0.20721246f, -0.14886537f, 
  
};

#endif // ESP32_MLP_WEIGHTS_H
